2.452335804700851440e-01
2.281200438737869263e-01
-2.141583710908889771e-01
1.701432317495346069e-01
-2.182460427284240723e-01
2.663020789623260498e-01
-9.087494015693664551e-02
-1.659868508577346802e-01
1.321678906679153442e-01
2.314074039459228516e-01
2.373282611370086670e-01
-7.520993053913116455e-02
-6.212000548839569092e-02
-2.116954028606414795e-01
1.908652484416961670e-01
1.517854630947113037e-01
-1.657059937715530396e-01
2.312682420015335083e-01
1.492110192775726318e-01
1.464856564998626709e-01
1.703656166791915894e-01
2.345893085002899170e-01
1.302839368581771851e-01
-2.283698618412017822e-01
6.455644965171813965e-02
2.434217929840087891e-01
1.669449508190155029e-01
2.524419724941253662e-01
-7.104650139808654785e-02
-1.860524564981460571e-01
1.410365253686904907e-01
1.732858121395111084e-01
1.916909515857696533e-01
1.431082636117935181e-01
2.118996083736419678e-01
1.180360540747642517e-01
-1.534644421190023422e-02
-5.077438428997993469e-02
-7.352799177169799805e-03
1.263570636510848999e-01
1.524877697229385376e-01
2.523408234119415283e-01
-1.705669313669204712e-01
1.702229976654052734e-01
-2.081264853477478027e-01
1.660471856594085693e-01
1.524569988250732422e-01
2.366733253002166748e-01
-1.401670128107070923e-01
1.338061690330505371e-01
2.042415142059326172e-01
1.448713988065719604e-01
2.362292408943176270e-01
1.932218521833419800e-01
8.257301151752471924e-02
1.964733600616455078e-01
1.966977715492248535e-01
1.696169227361679077e-01
1.149994805455207825e-01
-5.864528939127922058e-02
-1.549515128135681152e-01
1.164090782403945923e-01
7.241512835025787354e-02
1.732937097549438477e-01
1.792290210723876953e-01
2.247880399227142334e-01
2.565154135227203369e-01
-2.247454077005386353e-01
-2.042668014764785767e-01
-1.581649184226989746e-01
1.879417747259140015e-01
2.025280147790908813e-01
1.692794412374496460e-01
1.815477609634399414e-01
2.496965825557708740e-01
9.017212688922882080e-02
1.893876194953918457e-01
2.119076102972030640e-01
2.019654512405395508e-01
1.257123351097106934e-01
1.629436388611793518e-02
2.186010181903839111e-01
2.478127777576446533e-01
1.366738528013229370e-01
1.981061697006225586e-01
2.712838649749755859e-01
1.640764176845550537e-01
1.609247326850891113e-01
-8.178640902042388916e-02
1.611374169588088989e-01
2.455130964517593384e-01
2.001587748527526855e-01
-1.881387084722518921e-01
1.790015399456024170e-01
1.601886302232742310e-01
-1.174052655696868896e-01
1.868792623281478882e-01
1.526494473218917847e-01
-1.778966933488845825e-01
2.516217827796936035e-01
