1.111851334571838379e-01
-4.658426623791456223e-03
-5.345079302787780762e-02
4.288819804787635803e-02
-1.953551359474658966e-02
4.403349161148071289e-01
1.925368234515190125e-02
3.172100707888603210e-02
-2.273387461900711060e-02
-9.624823927879333496e-02
-9.243727475404739380e-02
1.168504580855369568e-01
6.166610121726989746e-02
-2.165341973304748535e-01
-3.032182902097702026e-02
6.137735396623611450e-02
3.678195178508758545e-02
6.932894140481948853e-02
9.031079709529876709e-02
4.720465540885925293e-01
4.930289462208747864e-02
-1.946961693465709686e-02
3.870075941085815430e-02
6.386968307197093964e-03
-8.114578574895858765e-02
-7.390258461236953735e-02
-1.026331484317779541e-01
9.523275308310985565e-03
-9.091555327177047729e-02
-5.527878403663635254e-01
2.813228033483028412e-02
1.245640292763710022e-01
-2.458861842751502991e-02
-2.652117908000946045e-01
1.450955867767333984e-01
5.245893076062202454e-02
-4.144958779215812683e-02
-1.064927503466606140e-01
1.435302104800939560e-02
7.780041545629501343e-02
3.412014991044998169e-02
7.424779981374740601e-02
-8.409544080495834351e-02
2.640570141375064850e-02
-3.010705299675464630e-02
8.171465247869491577e-02
8.152110874652862549e-02
5.100978165864944458e-02
-5.038202404975891113e-01
-9.629382193088531494e-02
-2.978226728737354279e-02
5.220480263233184814e-02
3.263833001255989075e-02
1.321298032999038696e-01
6.806091964244842529e-02
-9.185337275266647339e-02
5.877212435007095337e-02
-3.479779064655303955e-01
-8.577527105808258057e-02
1.254720538854598999e-01
3.986081480979919434e-02
-1.212673336267471313e-01
-6.114424020051956177e-02
4.496718943119049072e-02
5.193973705172538757e-02
-4.217295348644256592e-02
1.032139956951141357e-01
-8.861537277698516846e-02
-2.165926992893218994e-02
7.360923290252685547e-02
2.863104082643985748e-02
9.434173256158828735e-02
1.376905590295791626e-01
-7.716842740774154663e-02
6.818392872810363770e-02
-3.347366154193878174e-01
-4.329340904951095581e-02
-1.037009954452514648e-01
7.090374827384948730e-02
5.533619970083236694e-02
-9.229969233274459839e-02
-4.852585792541503906e-01
-4.391125589609146118e-02
7.111388444900512695e-01
-4.127987101674079895e-02
5.573393777012825012e-02
3.464733064174652100e-02
1.188758295029401779e-02
7.395767420530319214e-02
1.010494530200958252e-01
-3.799853473901748657e-02
-8.613845705986022949e-02
-1.638878881931304932e-01
4.900439828634262085e-02
-6.502640992403030396e-02
1.601629890501499176e-02
2.385695464909076691e-02
-4.133092984557151794e-02
1.798508167266845703e-01
-9.428828954696655273e-02
