1.745352335274219513e-02
-2.294281125068664551e-02
1.823661290109157562e-02
-4.584044590592384338e-02
2.553021162748336792e-02
9.989646263420581818e-03
2.743035927414894104e-02
2.306111156940460205e-02
4.619949962943792343e-03
-4.046569764614105225e-02
-2.366666309535503387e-02
-2.962684258818626404e-02
-3.527266439050436020e-03
-2.117411047220230103e-02
2.612937800586223602e-02
4.032450728118419647e-03
-5.574445798993110657e-02
3.666701167821884155e-02
2.942983061075210571e-02
2.345322817564010620e-02
-1.803156733512878418e-02
-2.975020557641983032e-03
-2.906384645029902458e-03
-2.550451830029487610e-02
-1.204744912683963776e-02
-4.333211854100227356e-02
-2.095402032136917114e-02
3.339347988367080688e-02
-2.819354273378849030e-02
-5.146571900695562363e-03
2.456283941864967346e-02
1.909905225038528442e-01
3.737765550613403320e-02
1.993342116475105286e-02
3.035453706979751587e-02
-1.763250306248664856e-02
-2.059889584779739380e-02
3.276088833808898926e-02
-6.802713032811880112e-03
-7.809793110936880112e-03
-1.810351759195327759e-02
-1.613087393343448639e-02
-8.661902695894241333e-02
-1.264834497123956680e-02
-2.750513330101966858e-02
-1.944342814385890961e-02
1.561392564326524734e-02
-6.905243732035160065e-03
2.371103316545486450e-02
5.047653317451477051e-01
-1.576100848615169525e-02
-1.779060810804367065e-03
-2.282310277223587036e-02
-2.030824311077594757e-02
7.528275996446609497e-02
3.854059875011444092e-01
2.858398715034127235e-03
-1.419979613274335861e-02
2.185418084263801575e-02
2.780378982424736023e-02
1.824472472071647644e-02
5.616908892989158630e-02
5.234631709754467010e-03
2.931863069534301758e-02
-3.463380783796310425e-02
-2.397961542010307312e-02
-2.662702836096286774e-02
-3.568775951862335205e-02
2.576195076107978821e-02
-3.100168146193027496e-02
-3.036906570196151733e-02
2.478354424238204956e-02
3.029215633869171143e-01
2.546481974422931671e-02
-2.165714651346206665e-02
-4.149963334202766418e-02
2.020853338763117790e-03
-1.327566802501678467e-02
3.364894539117813110e-03
-5.027992129325866699e-01
2.011652104556560516e-02
-1.490469928830862045e-02
2.116404473781585693e-02
1.641600206494331360e-02
2.937804907560348511e-02
3.073700517416000366e-02
-5.331842228770256042e-02
2.986756339669227600e-02
-1.223473809659481049e-03
4.676973912864923477e-03
-4.309939593076705933e-02
2.769922465085983276e-02
1.806634664535522461e-02
-3.738279640674591064e-02
1.009334251284599304e-02
9.598209522664546967e-03
-1.752660237252712250e-02
3.538435697555541992e-02
3.439787030220031738e-02
-1.049548853188753128e-03
