1.365197151899337769e-01
1.175499185919761658e-01
-2.602690830826759338e-02
-1.705332286655902863e-02
4.405615385621786118e-03
1.661857962608337402e-01
-3.668088838458061218e-02
1.002790555357933044e-01
-1.438134461641311646e-01
2.084624767303466797e-02
-2.844935841858386993e-02
-1.396317481994628906e-01
8.661869913339614868e-03
-2.685941383242607117e-02
-3.990458697080612183e-02
3.051882795989513397e-02
3.945800289511680603e-02
-8.806709945201873779e-02
2.840230008587241173e-04
-7.128547294996678829e-04
6.345843523740768433e-02
-8.925552666187286377e-02
1.569195240736007690e-01
1.985690742731094360e-01
-3.347015008330345154e-02
2.256635576486587524e-01
8.624243550002574921e-03
-2.073898352682590485e-02
1.738110780715942383e-01
1.224292069673538208e-01
-8.008996397256851196e-02
2.995989657938480377e-02
-1.749802380800247192e-02
1.521257758140563965e-01
-2.051353156566619873e-01
-1.328675448894500732e-02
-1.453570127487182617e-01
-1.337051093578338623e-01
-5.905550438910722733e-03
-9.637269377708435059e-02
-1.651576310396194458e-01
1.405627280473709106e-01
3.211602866649627686e-01
-3.330119699239730835e-02
3.068330138921737671e-02
3.567502796649932861e-01
1.166911050677299500e-02
3.122900724411010742e-01
1.273313611745834351e-01
2.527584135532379150e-01
-9.646528400480747223e-03
-3.250312060117721558e-03
-5.535857286304235458e-03
1.612191051244735718e-01
3.130015432834625244e-01
7.974754087626934052e-03
1.391340047121047974e-01
7.142888009548187256e-02
1.160422340035438538e-02
-4.092458263039588928e-02
1.289636194705963135e-01
-9.273253381252288818e-03
9.915675967931747437e-03
-3.739614272490143776e-03
-1.512327417731285095e-02
1.873042434453964233e-01
3.028426319360733032e-02
2.559573650360107422e-01
-1.607376188039779663e-01
-8.541963994503021240e-02
-2.781456336379051208e-02
-1.418555248528718948e-02
1.281586885452270508e-01
-1.588982790708541870e-01
-3.027534671127796173e-02
-9.851157665252685547e-03
7.002450525760650635e-03
1.470381766557693481e-01
-8.985105156898498535e-02
-2.945828437805175781e-02
2.102572172880172729e-01
-1.089833676815032959e-01
-1.426537521183490753e-02
1.457915455102920532e-01
-2.578899562358856201e-01
2.267121337354183197e-03
-1.531608868390321732e-02
2.485338598489761353e-02
-1.727730035781860352e-02
4.510814789682626724e-03
-9.664595127105712891e-02
1.623793877661228180e-02
2.418521791696548462e-02
2.407622337341308594e-02
9.624046832323074341e-02
3.096315450966358185e-02
-1.203792355954647064e-02
1.252092421054840088e-01
3.039237856864929199e-02
1.574406623840332031e-01
