-1.585989072918891907e-02
2.652787789702415466e-02
1.087001617997884750e-02
-1.469015479087829590e-01
2.895491942763328552e-02
-5.724852904677391052e-03
-2.218974055722355843e-03
-5.266666039824485779e-02
-4.216528311371803284e-02
-2.849866449832916260e-02
3.095612116158008575e-02
2.888944000005722046e-02
2.940581180155277252e-02
4.993319883942604065e-02
4.077968373894691467e-02
-2.159098163247108459e-02
1.230045501142740250e-02
-1.629367657005786896e-02
4.075083881616592407e-02
-3.174325823783874512e-02
4.236285574734210968e-03
6.112237460911273956e-03
-3.815285488963127136e-02
-1.425750926136970520e-02
1.260761357843875885e-02
-2.360708313062787056e-03
-3.312608972191810608e-02
-9.604531340301036835e-03
-1.371932625770568848e-01
2.103231661021709442e-02
-1.083042006939649582e-02
-2.780365059152245522e-03
-2.163994824513792992e-03
7.768321782350540161e-03
-3.610085695981979370e-02
1.248136069625616074e-02
1.423946674913167953e-02
-2.536551840603351593e-02
2.282489091157913208e-02
-2.379191573709249496e-03
1.831308566033840179e-02
1.986437104642391205e-02
3.169263154268264771e-02
2.008847706019878387e-02
7.235050201416015625e-02
2.294695563614368439e-02
1.975861191749572754e-02
1.316022425889968872e-01
4.122423473745584488e-03
1.577491462230682373e-01
-3.865154925733804703e-03
-1.548357191495597363e-03
-1.100583560764789581e-02
-2.770866733044385910e-03
-8.444321341812610626e-03
2.574768289923667908e-02
-4.546134267002344131e-03
7.745919749140739441e-03
2.565708383917808533e-02
-4.265912994742393494e-02
-6.690224260091781616e-02
-3.279178142547607422e-01
4.021727014333009720e-03
4.744192212820053101e-02
4.158947151154279709e-03
1.972401514649391174e-03
-3.850648645311594009e-03
1.301375217735767365e-02
-5.911565572023391724e-02
-5.492512136697769165e-03
4.354405030608177185e-02
-3.416899964213371277e-02
-1.763755269348621368e-02
-5.836960673332214355e-02
5.944824591279029846e-02
-2.862536348402500153e-02
4.084829241037368774e-03
1.611993759870529175e-01
2.036118321120738983e-02
2.279458008706569672e-02
6.636825855821371078e-03
1.097657624632120132e-02
5.828373506665229797e-02
4.556421190500259399e-03
-4.367570206522941589e-02
-1.638172753155231476e-02
5.260258167982101440e-02
-2.122274041175842285e-02
4.176768660545349121e-02
-2.678956463932991028e-02
2.432827278971672058e-02
2.386642061173915863e-02
-3.427986055612564087e-02
4.467584565281867981e-02
6.913721561431884766e-02
1.800526119768619537e-02
8.110059425234794617e-03
2.742013707756996155e-02
-1.256023067981004715e-02
2.962087094783782959e-02
