-2.700119912624359131e-01
1.194255426526069641e-01
-2.325010299682617188e-01
1.567546576261520386e-01
6.234214082360267639e-02
1.135335490107536316e-02
-4.581503104418516159e-03
-2.204116026405245066e-04
1.162088289856910706e-01
-2.024991214275360107e-01
1.265352517366409302e-01
2.288031764328479767e-02
9.134488552808761597e-02
1.793830990791320801e-01
8.147287368774414062e-02
-9.633547067642211914e-02
-1.879087649285793304e-02
-1.655203104019165039e-01
2.145192474126815796e-01
-9.766463190317153931e-02
-5.266418308019638062e-02
1.657985895872116089e-01
5.502169579267501831e-02
-6.530936062335968018e-02
-3.318779170513153076e-02
-1.912839114665985107e-01
-4.536146223545074463e-01
1.150959581136703491e-01
-4.286365956068038940e-02
-1.397405862808227539e-01
5.443056579679250717e-04
-3.272550180554389954e-02
-8.862128853797912598e-02
-1.086189076304435730e-01
-1.113035678863525391e-01
9.280692040920257568e-02
-1.271482557058334351e-01
-1.127236858010292053e-01
-1.629371196031570435e-01
9.577253460884094238e-02
-1.374329924583435059e-01
-5.906646698713302612e-02
-3.835357492789626122e-03
-6.966058909893035889e-02
6.259678304195404053e-02
-9.656451642513275146e-02
-5.158818885684013367e-02
5.706552043557167053e-02
2.802445888519287109e-01
2.781060896813869476e-02
-1.360718756914138794e-01
1.159463301301002502e-01
-1.182561516761779785e-01
-2.687945067882537842e-01
1.319246143102645874e-01
-3.974643051624298096e-01
1.420859545469284058e-01
-8.028700947761535645e-02
1.339598000049591064e-01
1.018607523292303085e-02
1.678779870271682739e-01
-1.119198501110076904e-01
5.631619691848754883e-02
-1.523747853934764862e-02
-1.238711774349212646e-01
-4.160632565617561340e-02
5.557802692055702209e-02
-1.986336708068847656e-01
-8.613219857215881348e-02
1.866820752620697021e-01
9.608440846204757690e-02
7.090879138559103012e-03
-9.673911333084106445e-02
6.839311122894287109e-02
1.391429603099822998e-01
-1.302325576543807983e-01
1.073432713747024536e-01
-2.889955341815948486e-01
-4.109475761651992798e-02
-3.979664295911788940e-02
-1.908231712877750397e-02
-1.506369709968566895e-01
-8.082889765501022339e-02
-1.420611590147018433e-01
1.326677501201629639e-01
-2.849181927740573883e-02
-9.218081831932067871e-02
7.880095392465591431e-02
3.828219196293503046e-04
-9.320990741252899170e-02
-5.439671874046325684e-02
-1.058888584375381470e-01
-1.195983290672302246e-01
5.459621548652648926e-01
1.110408306121826172e-01
-6.358834356069564819e-02
-1.177160963416099548e-01
-1.755049675703048706e-01
5.067610740661621094e-02
-1.031725257635116577e-01
