-1.455294806510210037e-02
2.529735118150711060e-02
3.490535169839859009e-02
1.419276446104049683e-01
9.861832857131958008e-02
-1.118460297584533691e-01
1.210593730211257935e-01
2.831048704683780670e-02
-2.970077656209468842e-02
3.960777819156646729e-02
3.875488787889480591e-02
7.630449254065752029e-03
-6.617897003889083862e-02
-1.348569802939891815e-02
-5.890374258160591125e-02
7.241045683622360229e-02
-2.183859795331954956e-02
3.919194638729095459e-02
-1.048899162560701370e-02
1.947002857923507690e-02
1.592988520860671997e-02
1.841302663087844849e-01
2.073016017675399780e-02
8.162242174148559570e-02
-7.327105849981307983e-03
3.875111043453216553e-02
8.076967298984527588e-02
-1.255943439900875092e-03
-1.300497446209192276e-02
1.444289926439523697e-02
6.017649918794631958e-02
-2.939595095813274384e-02
8.300414681434631348e-02
1.625644159503281116e-03
1.101631075143814087e-01
1.606367714703083038e-02
-8.245300501585006714e-02
6.595998257398605347e-02
1.171020120382308960e-01
-6.120090931653976440e-02
9.638517076382413507e-05
-1.189451217651367188e-01
-4.368249699473381042e-02
2.054434120655059814e-01
-9.676383435726165771e-02
-8.596571162343025208e-03
1.613804697990417480e-01
-4.690714180469512939e-03
-2.812353335320949554e-02
3.549327701330184937e-02
1.631378829479217529e-01
6.311941891908645630e-03
5.068428814411163330e-03
-4.238072037696838379e-02
-2.499528229236602783e-02
8.819694072008132935e-02
-3.447257680818438530e-03
-1.231306791305541992e-02
-1.378398835659027100e-01
-1.610394567251205444e-03
1.351326406002044678e-01
-2.776256017386913300e-02
7.678961008787155151e-02
1.523013785481452942e-02
-5.967147648334503174e-03
5.739062279462814331e-02
-4.879851266741752625e-02
-3.072939068078994751e-02
7.965222746133804321e-02
-2.538702078163623810e-02
2.649637311697006226e-02
-1.022515352815389633e-02
-7.083324342966079712e-02
6.527405977249145508e-02
-1.407715026289224625e-02
9.736571460962295532e-03
7.110877335071563721e-02
-1.160292923450469971e-01
-4.784788470715284348e-03
-3.602650016546249390e-02
-8.983887732028961182e-02
9.182001464068889618e-03
-2.864766865968704224e-03
-1.730757206678390503e-02
1.386344432830810547e-02
8.453428745269775391e-03
7.322335243225097656e-02
-5.492153577506542206e-03
1.064926013350486755e-01
2.421076223254203796e-02
-7.495373487472534180e-02
7.260245829820632935e-02
-1.092504896223545074e-02
-1.037964820861816406e-01
1.799654215574264526e-02
-2.300498262047767639e-02
1.100981682538986206e-01
-2.009786292910575867e-02
-3.230081498622894287e-02
-2.468522638082504272e-03
