-4.564542770385742188e-01
4.892338514328002930e-01
6.477882266044616699e-01
2.301492691040039062e-01
4.003190994262695312e-01
-7.856576442718505859e-01
2.774111926555633545e-01
-8.432933688163757324e-01
-5.006088614463806152e-01
-6.626577973365783691e-01
9.143781065940856934e-01
8.713684678077697754e-01
1.310567975044250488e+00
2.133518904447555542e-01
-1.565090417861938477e+00
-1.191210150718688965e+00
-1.466402262449264526e-01
1.104143977165222168e+00
2.167983353137969971e-01
2.366339713335037231e-01
2.247761636972427368e-01
3.357648253440856934e-01
-6.770186424255371094e-01
2.657311856746673584e-01
3.070231080055236816e-01
8.887144327163696289e-01
-1.171745285391807556e-01
5.951182842254638672e-01
7.194194793701171875e-01
8.765913248062133789e-01
-5.616557002067565918e-01
-1.100158244371414185e-01
1.035286307334899902e+00
-6.135840415954589844e-01
8.064144849777221680e-01
1.690503060817718506e-01
-8.292919993400573730e-01
4.441639780998229980e-01
-4.998171329498291016e-01
-3.508129715919494629e-01
-7.409188747406005859e-01
-2.237908244132995605e-01
2.174229174852371216e-02
2.773398160934448242e-01
6.276376247406005859e-01
-1.838035136461257935e-01
3.173341751098632812e-01
-2.139221318066120148e-02
2.252006530761718750e-01
-2.546209376305341721e-03
1.096691042184829712e-01
7.861739993095397949e-01
9.676126390695571899e-02
-6.498606801033020020e-01
2.376806139945983887e-01
2.754347622394561768e-01
2.464703917503356934e-01
-9.761780500411987305e-01
-1.479196429252624512e+00
7.905223965644836426e-01
-1.460047215223312378e-01
-4.144702255725860596e-01
8.107188940048217773e-01
1.121618509292602539e+00
-2.039696723222732544e-01
3.698469102382659912e-01
8.590470552444458008e-01
-3.640899956226348877e-01
-6.275659203529357910e-01
-2.313663363456726074e-01
-6.620212197303771973e-01
-2.301475107669830322e-01
-2.970283031463623047e-01
7.226197123527526855e-01
3.787895441055297852e-01
-6.928575634956359863e-01
1.293070912361145020e-01
-3.395498096942901611e-01
6.618450284004211426e-01
2.206391692161560059e-01
7.133936285972595215e-01
-4.764564335346221924e-02
-3.434080481529235840e-01
-7.493973970413208008e-01
-5.962794423103332520e-01
-1.361477136611938477e+00
-5.287973284721374512e-01
-3.554767668247222900e-01
5.595738291740417480e-01
4.998817443847656250e-01
-3.425514400005340576e-01
2.133427262306213379e-01
-6.401279568672180176e-01
2.036114782094955444e-01
-4.947886765003204346e-01
-4.105718061327934265e-02
-4.033212661743164062e-01
-9.798896908760070801e-01
-3.108371198177337646e-01
4.345920383930206299e-01
