-3.984925150871276855e-02,-3.528705239295959473e-02,-4.232065379619598389e-02,3.701283410191535950e-02,1.464727800339460373e-02,-4.944108892232179642e-03,3.311524912714958191e-02,-1.488108560442924500e-02,5.514219403266906738e-02,-1.327041070908308029e-02,-3.971376642584800720e-02,2.911819610744714737e-03,-8.075696416199207306e-03,-3.421974927186965942e-02,4.105107858777046204e-02,4.122656956315040588e-02,-4.101304337382316589e-02,4.201043397188186646e-02,-4.529866576194763184e-02,-1.341626164503395557e-03,3.891067951917648315e-02,-3.923915699124336243e-02,4.063225537538528442e-02,3.274839743971824646e-02,3.659486025571823120e-02,-3.002845309674739838e-02,-2.672087959945201874e-02,-4.469984769821166992e-02,2.469730190932750702e-02,-3.428263962268829346e-02,3.228760510683059692e-02,-1.856725476682186127e-02,6.080374866724014282e-02,-7.520859688520431519e-02,-4.144891723990440369e-02,-5.161143466830253601e-02,-1.859494112432003021e-02,2.823165850713849068e-03,-2.456103265285491943e-02,1.963994838297367096e-02,-2.529986761510372162e-02,2.635456994175910950e-02,-3.104791417717933655e-02,2.988000027835369110e-02,1.395656913518905640e-02,5.378062650561332703e-02,4.596236348152160645e-02,3.882659366354346275e-03,-3.075023740530014038e-02,1.872388273477554321e-02,4.477803409099578857e-02,-4.600565135478973389e-02,-2.592561021447181702e-02,6.335282325744628906e-02,2.651076205074787140e-02,-3.602473065257072449e-03,8.980707265436649323e-03,-4.154063016176223755e-02,-3.943913802504539490e-02,-2.733972296118736267e-02,-3.215359896421432495e-02,-4.098116606473922729e-02,2.329646144062280655e-03,-5.254288390278816223e-02,-3.094324655830860138e-02,-3.858504816889762878e-02,-2.366872504353523254e-02,2.167959325015544891e-02,-3.509786352515220642e-02,-3.887950256466865540e-02,-2.989716129377484322e-03,6.347526796162128448e-03,4.979668930172920227e-02,1.804429339244961739e-04,3.183810412883758545e-02,-5.441933125257492065e-02,2.151505649089813232e-02,-1.584115624427795410e-02,-4.437660425901412964e-02,3.728991746902465820e-02,1.685846038162708282e-02,-3.004158660769462585e-02,1.492437161505222321e-02,-6.332746124826371670e-04,4.108898341655731201e-03,-4.698076471686363220e-02,-4.176296666264533997e-02,-2.340884506702423096e-02,-3.717042133212089539e-02,-1.919402927160263062e-02,-1.806145533919334412e-02,8.536925539374351501e-03,1.066222414374351501e-02,5.366428941488265991e-02,6.224730983376502991e-03,5.418485496193170547e-03,4.480019677430391312e-03,1.703797467052936554e-02,2.030517533421516418e-02,-1.509256567806005478e-02
-1.229051128029823303e-02,-5.017427355051040649e-02,3.057419508695602417e-02,-1.298115123063325882e-03,-4.026985913515090942e-02,-2.259289100766181946e-02,-4.743839427828788757e-02,-4.450554028153419495e-02,-1.330698281526565552e-02,4.617035761475563049e-02,1.610920764505863190e-02,6.236254423856735229e-02,-2.044692635536193848e-02,-2.733806893229484558e-02,2.089726924896240234e-02,-4.320630431175231934e-02,-2.532499097287654877e-02,-3.293977305293083191e-02,3.553875489160418510e-03,4.214297235012054443e-02,-6.173984147608280182e-04,-2.415684424340724945e-02,-2.498028427362442017e-02,1.806848496198654175e-02,2.708545187488198280e-03,6.747627630829811096e-03,7.308207452297210693e-03,-3.058430738747119904e-02,3.845645487308502197e-02,3.615751489996910095e-02,2.928216941654682159e-02,1.978484354913234711e-02,-2.778199687600135803e-02,6.471781525760889053e-03,-6.825336720794439316e-03,1.420424040406942368e-02,-4.138937592506408691e-02,3.805359080433845520e-02,1.743041723966598511e-02,6.709562242031097412e-02,3.845638781785964966e-02,-5.188299715518951416e-02,3.956031054258346558e-02,-4.172306507825851440e-02,-5.091729387640953064e-02,-5.243012215942144394e-03,-4.155312851071357727e-02,-3.483495488762855530e-02,2.541956119239330292e-02,-2.852451615035533905e-02,-1.355681568384170532e-02,-1.637354493141174316e-02,-2.884536981582641602e-02,-1.559419371187686920e-02,-3.433808311820030212e-02,-2.472150139510631561e-02,5.622390657663345337e-02,-2.005252754315733910e-03,3.481811285018920898e-02,2.963338419795036316e-02,-6.398657709360122681e-02,2.908866293728351593e-02,3.459944203495979309e-02,-1.139167509973049164e-02,1.511951326392591000e-03,8.986318483948707581e-03,5.302389338612556458e-02,3.887469321489334106e-02,3.327932581305503845e-02,-1.980407349765300751e-02,3.413205593824386597e-02,-5.475694686174392700e-02,3.851024433970451355e-02,-4.500948637723922729e-02,-3.527102759107947350e-03,-2.456402580719441175e-04,8.634407073259353638e-03,-3.611837327480316162e-02,2.152464352548122406e-02,1.880365423858165741e-02,-4.080473259091377258e-02,3.777999430894851685e-02,-3.175099939107894897e-02,3.146251663565635681e-02,-3.449977189302444458e-02,4.236865788698196411e-02,-1.474582473747432232e-03,-4.121077433228492737e-02,4.950158298015594482e-02,-5.501854047179222107e-02,-2.172486297786235809e-02,-4.012944921851158142e-02,3.854892775416374207e-02,1.427071448415517807e-02,4.321960359811782837e-02,3.803177922964096069e-02,4.158465191721916199e-02,-4.304276034235954285e-02,-3.482129052281379700e-02,-2.382460609078407288e-02
