-3.486188873648643494e-02,-1.359764039516448975e-01,3.523114696145057678e-02,4.947225376963615417e-02,1.643732003867626190e-02,-1.979421079158782959e-01,1.116829663515090942e-01,-1.028740331530570984e-01,-1.545899957418441772e-01,-1.696315556764602661e-01,3.969316557049751282e-02,5.228474736213684082e-02,1.865546107292175293e-01,-9.391694329679012299e-03,5.468012765049934387e-02,-1.132717579603195190e-01,1.042148768901824951e-01,-9.965798258781433105e-02,1.498059332370758057e-01,7.428491860628128052e-02
4.441197216510772705e-02,3.977855667471885681e-02,1.289688646793365479e-01,-1.770434230566024780e-01,-1.359296441078186035e-01,3.078442439436912537e-02,4.726032540202140808e-02,1.402397304773330688e-01,-1.454598158597946167e-01,1.046043336391448975e-01,4.831471294164657593e-02,-6.174169108271598816e-02,6.730730086565017700e-02,9.674661606550216675e-02,-7.600317150354385376e-02,1.579482257366180420e-01,-6.980295479297637939e-02,3.678723797202110291e-02,-1.358187943696975708e-01,4.859895259141921997e-02
