-6.297512650489807129e-01,-2.713615596294403076e-01,3.940208852291107178e-01,5.578134655952453613e-01,-4.874504804611206055e-01,-3.643811047077178955e-01,-1.720711439847946167e-01,5.633925199508666992e-01,4.679392874240875244e-01,4.280605912208557129e-01,3.301409184932708740e-01,7.978034764528274536e-02,-6.400220394134521484e-01,-2.057200521230697632e-01,3.971373140811920166e-01,5.539371371269226074e-01,3.051100969314575195e-01,6.064391136169433594e-01,-6.027958989143371582e-01,-5.753165483474731445e-01
8.525111526250839233e-02,-4.758974313735961914e-01,6.526423096656799316e-01,4.815954566001892090e-01,2.440410256385803223e-01,-4.965892732143402100e-01,-6.966243982315063477e-01,-3.280588388442993164e-01,-1.725451946258544922e-01,5.140376091003417969e-01,-4.269461631774902344e-01,5.054627656936645508e-01,-6.056101992726325989e-02,-5.047102570533752441e-01,4.736829102039337158e-01,-2.246365994215011597e-01,-6.414341330528259277e-01,-2.009950727224349976e-01,4.674085080623626709e-01,3.824729323387145996e-01
