-1.285741031169891357e-01,7.285613417625427246e-01,2.750195860862731934e-01,1.294819861650466919e-01,2.842647731304168701e-01,-2.110549435019493103e-02,-2.071273475885391235e-01,-1.494162231683731079e-01,-4.110755324363708496e-01,-3.902704715728759766e-01,6.537964940071105957e-01,2.924969494342803955e-01,2.316555380821228027e-02,-4.362918809056282043e-02,5.341156125068664551e-01,-3.068292327225208282e-02,-3.731404840946197510e-01,2.161798179149627686e-01,-3.393880724906921387e-01,-3.847936391830444336e-01
3.472622334957122803e-01,-2.060860246419906616e-01,-3.325950801372528076e-01,-5.164756774902343750e-01,-6.483859419822692871e-01,-5.363093018531799316e-01,-4.010701775550842285e-01,5.954365134239196777e-01,4.338811337947845459e-01,2.224909141659736633e-02,-1.766139119863510132e-01,3.435528874397277832e-01,-5.965289473533630371e-01,-1.776671856641769409e-01,-6.560548394918441772e-02,-4.184814393520355225e-01,-1.407343596220016479e-01,-2.171619981527328491e-01,-1.742578744888305664e-01,-1.345280855894088745e-01
