7.547003030776977539e-02,2.474490106105804443e-01,-6.055682301521301270e-01,6.813009828329086304e-02,-3.988302052021026611e-01,-1.334888162091374397e-03,-1.992994546890258789e-01,3.383545279502868652e-01,-2.411746680736541748e-01,2.279081642627716064e-01,-2.160282246768474579e-02,6.892160326242446899e-02,4.629723429679870605e-01,-6.749398708343505859e-01,-5.171590447425842285e-01,2.720984518527984619e-01,-3.684097230434417725e-01,2.117890417575836182e-01,6.257414221763610840e-01,5.682827234268188477e-01,-1.023833826184272766e-01,-2.880266308784484863e-01,-4.758527278900146484e-01,1.432378590106964111e-01,-2.189035266637802124e-01,-1.526026576757431030e-01,3.075101375579833984e-01,-2.215786129236221313e-01,-4.653783440589904785e-01,2.093793898820877075e-01
-1.968647539615631104e-01,4.482684135437011719e-01,4.445901140570640564e-02,3.992690742015838623e-01,8.395464718341827393e-02,-3.562424480915069580e-01,-3.297632634639739990e-01,-1.499291956424713135e-01,-3.583019673824310303e-01,-2.890329957008361816e-01,-3.703358769416809082e-01,-2.856164872646331787e-01,-2.163547724485397339e-01,2.263470292091369629e-01,1.717353463172912598e-01,-3.866122961044311523e-01,1.606328487396240234e-01,2.521492540836334229e-01,-3.969520628452301025e-01,-1.632079035043716431e-01,3.553131222724914551e-01,-2.326090484857559204e-01,-1.980078220367431641e-02,4.179224669933319092e-01,-3.065497577190399170e-01,-3.148874640464782715e-01,-3.130496144294738770e-01,-3.454318940639495850e-01,-3.246772587299346924e-01,4.604885280132293701e-01
