1.027039736509323120e-01,1.488552987575531006e-01,-1.519353035837411880e-02,2.174830287694931030e-01,-2.016774415969848633e-01,2.539757788181304932e-01,-1.272222846746444702e-01,2.232317626476287842e-01,-5.490219965577125549e-02,9.451436996459960938e-02,-1.352140903472900391e-01,2.752792835235595703e-01,-4.438398405909538269e-02,2.341196388006210327e-01,-1.993428021669387817e-01,-8.410179987549781799e-03,-1.865474879741668701e-01,-1.932284794747829437e-02,-7.148139178752899170e-02,1.929688155651092529e-01
1.645046919584274292e-01,-1.619863063097000122e-01,1.621395945549011230e-01,-2.072388492524623871e-02,-4.916182160377502441e-02,-3.896316885948181152e-02,-9.398844093084335327e-02,1.090820133686065674e-01,1.402214020490646362e-01,-2.150748670101165771e-01,-2.083973288536071777e-01,-5.731293186545372009e-02,2.226756215095520020e-01,-7.959800958633422852e-02,2.207506895065307617e-01,2.227533608675003052e-01,-4.195464029908180237e-02,2.511881887912750244e-01,2.350664883852005005e-01,-1.305471807718276978e-01
