-7.641686499118804932e-02,2.982950806617736816e-01,1.192778814584016800e-02,-3.451969474554061890e-02,-1.095510739833116531e-02,-3.716108389198780060e-03,5.937987193465232849e-02,-6.386063992977142334e-02,-2.442977949976921082e-02,3.506305813789367676e-02,1.038074260577559471e-03,-9.383171051740646362e-02,-1.600843970663845539e-03,1.493959724903106689e-01,1.573433913290500641e-02,-2.702898159623146057e-02,-7.730495184659957886e-02,-4.297471418976783752e-02,2.644876763224601746e-02,-7.929857075214385986e-02,-6.933277472853660583e-03,8.293911069631576538e-02,-1.344818901270627975e-02,1.256000902503728867e-02,-8.427780866622924805e-02,1.264602877199649811e-02,-1.396264135837554932e-02,1.879468932747840881e-02,1.124058142304420471e-01,-3.733112663030624390e-02,4.144620895385742188e-02,-3.214064538478851318e-01,1.206705719232559204e-02,-2.386112697422504425e-02,-8.836098760366439819e-02,3.116785734891891479e-02,-6.928617600351572037e-03,-4.944945499300956726e-02,-7.428936660289764404e-02,-2.150754071772098541e-02,-2.236697264015674591e-02,-8.183760195970535278e-02,3.151534125208854675e-02,-2.084176056087017059e-02,6.644494831562042236e-02,7.661617361009120941e-03,-9.999486058950424194e-02,-1.015287190675735474e-01,-1.400865986943244934e-02,-1.325277984142303467e-02,-1.902581602334976196e-01,9.092553518712520599e-03,-2.637897431850433350e-02,2.029962837696075439e-02,-3.683477640151977539e-02,-1.094632223248481750e-01,-1.289695128798484802e-02,-5.560355260968208313e-03,1.446365471929311752e-02,3.947935104370117188e-01,-3.855799138545989990e-02,2.801335044205188751e-02,-6.675799842923879623e-03,1.490321606397628784e-01,-2.477819845080375671e-02,2.272287197411060333e-02,-3.956666041631251574e-04,1.817474812269210815e-01,-5.622188001871109009e-02,-2.215556986629962921e-02,-1.285054683685302734e-01,7.262253016233444214e-02,1.138465926051139832e-01,1.499741896986961365e-02,-2.185852732509374619e-03,-4.103400185704231262e-02,1.267128288745880127e-01,-1.629483012948185205e-04,-8.620887994766235352e-02,-2.093989774584770203e-02,-7.329101208597421646e-05,-1.899603307247161865e-01,-3.696899861097335815e-02,-4.960198327898979187e-02,-8.583700284361839294e-03,-2.552794851362705231e-02,1.035096049308776855e-01,5.432936921715736389e-02,-2.649101801216602325e-02,-1.893582195043563843e-02,-1.646815799176692963e-02,-1.380302309989929199e-01,1.706912741065025330e-02,-3.230970352888107300e-03,-7.120343297719955444e-02,5.289678461849689484e-03,-1.580417738296091557e-03,-2.021740376949310303e-02,5.239231884479522705e-02,-1.612753979861736298e-02,-8.748752297833561897e-04,-5.304274708032608032e-02,5.658355727791786194e-02,9.520009905099868774e-02,-2.457903325557708740e-02,-5.370821431279182434e-02,8.121338672935962677e-03,-2.445719540119171143e-01,1.596584171056747437e-01,-2.321958243846893311e-01,-1.006821403279900551e-03,-3.611630201339721680e-02,-7.361197494901716709e-04,-1.601847559213638306e-01,-1.733427867293357849e-02,1.720546558499336243e-02,2.767338454723358154e-01,-2.303630113601684570e-01,-6.364370137453079224e-02,-2.623291909694671631e-01,7.960310205817222595e-03,-3.637486952356994152e-04,-2.284239046275615692e-02,-5.887291394174098969e-03,5.778850987553596497e-03,7.268487662076950073e-02,1.496916054747998714e-03,1.309540867805480957e-01,8.044837974011898041e-03,-2.407731115818023682e-02,-7.755431532859802246e-02,-4.106130823493003845e-02,-6.365051027387380600e-03,-4.421694949269294739e-02,-1.180586591362953186e-02,3.178181126713752747e-02,1.591172441840171814e-02,2.577204629778862000e-02,1.626086793839931488e-02,7.950165867805480957e-02,-2.605479396879673004e-02,3.972633928060531616e-02,-8.874032646417617798e-02,-8.256604522466659546e-02,4.054204036947339773e-04,-5.123205482959747314e-02,7.491685450077056885e-02,1.087503973394632339e-02,2.431910857558250427e-02,-3.375105187296867371e-02,1.365014314651489258e-01,-9.725396335124969482e-02,1.291449833661317825e-02,1.721753925085067749e-02,1.976327970623970032e-03,3.723802801687270403e-04,-6.406885804608464241e-04,-1.823431625962257385e-02,-1.163525972515344620e-03,-1.416294276714324951e-02,1.984984800219535828e-02,-1.015552040189504623e-02,6.632307916879653931e-02,9.768753079697489738e-04,4.691161302616819739e-05,1.283620111644268036e-02,1.991407200694084167e-02,-1.296389847993850708e-01,-2.333430759608745575e-02,1.927702315151691437e-02,3.277055174112319946e-02,1.165190944448113441e-03,-7.649635523557662964e-02,2.462900802493095398e-02,6.938719749450683594e-02,-5.302808806300163269e-02,1.261604577302932739e-01,1.752982884645462036e-01,1.108159776777029037e-02,-8.029463887214660645e-02,7.106332480907440186e-02,-1.024510711431503296e-01,-4.176128655672073364e-03,2.793124876916408539e-02,4.008306562900543213e-02,3.747448092326521873e-03,-4.345071967691183090e-03,-5.373118817806243896e-02,1.859495416283607483e-02,-5.786793772131204605e-03,-3.398257831577211618e-04,2.208938635885715485e-02,-1.190423369407653809e-01,-3.149775415658950806e-02,2.194728702306747437e-01,8.693373762071132660e-03,-2.259536534547805786e-01,-2.379594370722770691e-02,9.483051300048828125e-02,-2.239436097443103790e-02
5.335644632577896118e-02,-8.990859240293502808e-02,-3.008589521050453186e-02,-4.214727506041526794e-02,2.798491716384887695e-02,2.570301294326782227e-02,-4.215933382511138916e-02,-4.211983084678649902e-02,1.001160219311714172e-02,-4.010239988565444946e-02,-1.436578948050737381e-02,4.872766882181167603e-02,7.763295620679855347e-02,-5.308798700571060181e-02,-1.471825242042541504e-01,-5.940930172801017761e-02,-1.684490032494068146e-02,-2.405611239373683929e-02,2.393750287592411041e-02,4.619726538658142090e-02,-5.529126618057489395e-03,-1.390515714883804321e-01,1.791069097816944122e-02,3.719895705580711365e-02,-5.950129032135009766e-02,2.121306955814361572e-01,-1.075590588152408600e-02,-2.946676127612590790e-02,6.523872911930084229e-02,2.461571246385574341e-02,-8.238956332206726074e-02,1.224791854619979858e-01,2.484245970845222473e-02,-1.813211478292942047e-02,7.205321639776229858e-02,7.509442418813705444e-02,-3.389290347695350647e-02,8.909140527248382568e-02,-2.877424284815788269e-02,-1.895841211080551147e-02,2.789743989706039429e-02,1.034394651651382446e-01,-1.625169068574905396e-01,4.094802960753440857e-02,1.657209396362304688e-01,7.559005171060562134e-03,-2.589828893542289734e-02,1.031997948884963989e-01,9.562780708074569702e-02,3.044645301997661591e-02,1.071875989437103271e-01,-2.364999242126941681e-02,2.845800109207630157e-02,-3.409778326749801636e-02,2.432496286928653717e-02,1.904065608978271484e-01,-3.619798459112644196e-03,1.677866466343402863e-02,1.154189556837081909e-02,3.173454105854034424e-02,1.171883847564458847e-02,2.110392227768898010e-02,-1.094300299882888794e-01,7.447968423366546631e-02,-6.219371035695075989e-02,1.294870395213365555e-02,6.783648859709501266e-04,-1.958296746015548706e-01,6.439062207937240601e-02,1.205241959542036057e-02,1.639912873506546021e-01,2.064555324614048004e-02,-7.296078652143478394e-02,-2.044090069830417633e-02,1.824336312711238861e-02,7.151819020509719849e-02,-1.889121681451797485e-01,-7.718317210674285889e-04,1.426269207149744034e-02,-4.930016584694385529e-03,-2.858616411685943604e-03,4.992156848311424255e-02,1.151764616370201111e-01,-2.830647863447666168e-02,1.621473766863346100e-02,-1.536859571933746338e-02,-8.667272329330444336e-02,-2.662715315818786621e-01,2.669665589928627014e-02,-1.109076011925935745e-02,2.898022299632430077e-03,5.878143385052680969e-02,-1.445283927023410797e-02,-2.431568223983049393e-03,-1.999658644199371338e-01,4.692248068749904633e-03,-8.722390048205852509e-03,4.088611155748367310e-02,1.256911605596542358e-01,-6.167205050587654114e-02,1.611698768101632595e-03,5.790460482239723206e-02,7.778996974229812622e-02,6.543745100498199463e-02,4.704434797167778015e-02,4.121300578117370605e-02,-1.171724349260330200e-01,-9.763184934854507446e-02,-1.584165543317794800e-02,2.609509229660034180e-01,-1.622147159650921822e-03,4.416584223508834839e-02,3.927499987185001373e-03,1.664203032851219177e-02,3.997998684644699097e-02,-2.263159863650798798e-02,-1.789888739585876465e-01,-7.940983772277832031e-02,-5.918844044208526611e-02,2.158747911453247070e-01,7.126078940927982330e-03,-2.635215059854090214e-04,1.348660420626401901e-02,3.739390149712562561e-02,-2.612241730093955994e-02,-4.671897273510694504e-03,2.287333644926548004e-02,-3.603292629122734070e-02,-1.388932112604379654e-02,3.657973557710647583e-02,-3.782577440142631531e-02,-2.029669843614101410e-02,2.095350436866283417e-02,8.159349672496318817e-03,3.038401156663894653e-02,-4.293625429272651672e-02,-2.043072134256362915e-02,-4.743249341845512390e-02,-3.916244953870773315e-02,6.357058137655258179e-02,1.131002679467201233e-01,1.429261267185211182e-01,1.529645025730133057e-01,1.121381148695945740e-01,-2.164893783628940582e-03,6.733252201229333878e-03,-6.890258938074111938e-02,-8.443236351013183594e-02,-4.339642450213432312e-02,2.722551859915256500e-02,1.990479975938796997e-01,9.072034060955047607e-02,8.958416874520480633e-04,9.311636537313461304e-02,-3.111725673079490662e-02,-6.724439444951713085e-04,8.631807868368923664e-04,3.181196376681327820e-02,1.345152035355567932e-03,1.011361107230186462e-01,-3.289268910884857178e-02,-1.687717586755752563e-01,3.579234704375267029e-02,2.689491212368011475e-02,-2.655232790857553482e-03,-2.714726142585277557e-02,7.028675079345703125e-02,-7.597184926271438599e-02,2.530003525316715240e-02,-2.133768424391746521e-02,-3.146642446517944336e-02,-5.976789630949497223e-03,6.956296414136886597e-02,-1.077980827540159225e-02,2.253207936882972717e-02,6.210237368941307068e-02,1.001208275556564331e-01,4.952778108417987823e-03,-1.037120744585990906e-01,1.403350681066513062e-01,-7.450326811522245407e-03,-1.102364063262939453e-02,-5.519753694534301758e-02,2.321446985006332397e-01,-1.083989292383193970e-01,-8.544167131185531616e-02,2.112145721912384033e-02,-5.857130512595176697e-02,-5.676181614398956299e-02,-1.332739293575286865e-01,1.913992018671706319e-04,1.255929842591285706e-02,-3.201739192008972168e-01,5.961332470178604126e-02,2.170202434062957764e-01,5.504514276981353760e-02,-3.246679529547691345e-02,-1.459096092730760574e-02,3.813932463526725769e-02,-4.040447622537612915e-02
