6.535342335700988770e-01,2.111205309629440308e-01,3.946589827537536621e-01,3.268105089664459229e-01,-2.098773419857025146e-01,-4.688773155212402344e-01,-1.419609785079956055e-01,-3.811585009098052979e-01,-5.691606998443603516e-01,-3.439768254756927490e-01,-4.765917062759399414e-01,-7.290913909673690796e-02,-4.525996148586273193e-01,3.743680715560913086e-01,2.753109633922576904e-01,-5.633983612060546875e-01,1.922381222248077393e-01,-6.493372321128845215e-01,1.335416138172149658e-01,5.232060551643371582e-01
-3.762358129024505615e-01,5.498437285423278809e-01,-7.267818450927734375e-01,-3.633731901645660400e-01,-4.874042272567749023e-01,1.434007883071899414e-01,2.656803429126739502e-01,1.773221939802169800e-01,-2.209800779819488525e-01,3.302737176418304443e-01,-9.169700741767883301e-02,-6.499750018119812012e-01,-4.737081229686737061e-01,-6.819463521242141724e-02,3.484135866165161133e-01,5.808461308479309082e-01,-3.835934400558471680e-01,-2.463369220495223999e-01,4.550461471080780029e-01,2.299104332923889160e-01
