-1.432054340839385986e-01,1.453636772930622101e-02,7.014930713921785355e-03,-1.813612878322601318e-01,1.781338006258010864e-01,-1.870457082986831665e-01,-1.982865110039710999e-02,4.985785111784934998e-02,-2.831607684493064880e-02,7.643797248601913452e-02,-2.974773943424224854e-02,-3.448774218559265137e-01,-7.044171448796987534e-03,-3.595129027962684631e-02,9.489295072853565216e-03,-1.251996867358684540e-02,3.543260321021080017e-02,-1.235480234026908875e-02,-9.855078160762786865e-02,7.515630871057510376e-02,-5.758731812238693237e-02,-6.121017038822174072e-02,-6.441622041165828705e-03,8.646436966955661774e-03,2.835686784237623215e-03,3.490678966045379639e-03,-6.477577239274978638e-02,-2.372394083067774773e-03,7.382125128060579300e-03,1.501614786684513092e-02,-1.517090853303670883e-02,-3.660793602466583252e-02,7.750488072633743286e-02,-5.540174990892410278e-02,-5.810648575425148010e-02,-3.716922551393508911e-02,-6.876432598801329732e-05,1.321809589862823486e-01,2.214377373456954956e-02,4.868854302912950516e-03,-2.434124704450368881e-03,-3.197824209928512573e-02,-1.208601985126733780e-02,6.272269412875175476e-03,-6.323899328708648682e-02,6.072929129004478455e-03,6.486393511295318604e-03,3.241301700472831726e-02,-4.172150045633316040e-03,-2.314863651990890503e-01,-1.503479108214378357e-02,1.018313132226467133e-02,4.009056091308593750e-02,1.182504817843437195e-01,-7.978419773280620575e-03,-2.699419483542442322e-02,3.764497488737106323e-02,-1.382756512612104416e-02,-1.079698130488395691e-01,4.402942210435867310e-02,-2.227491512894630432e-02,-2.838247120380401611e-01,2.192885801196098328e-02,2.701940014958381653e-02,-4.932703822851181030e-02,-3.995192423462867737e-02,-7.237651199102401733e-02,1.395515054464340210e-01,2.459426224231719971e-02,6.507912278175354004e-02,6.694782990962266922e-03,1.139049381017684937e-01,-1.142353937029838562e-02,9.810015559196472168e-03,-1.306600421667098999e-01,1.162481959909200668e-03,-1.527644693851470947e-01,4.032601136714220047e-03,7.006707601249217987e-03,2.381895668804645538e-03,1.002484653145074844e-02,5.528923124074935913e-03,4.391139745712280273e-02,6.936280429363250732e-02,-3.746787831187248230e-02,8.215749263763427734e-02,1.201137714087963104e-02,-4.437263123691082001e-03,2.098923921585083008e-02,-2.550453543663024902e-01,9.092610329389572144e-02,-1.227504573762416840e-02,-9.549124538898468018e-02,1.260460354387760162e-02,1.111081391572952271e-01,-7.325345184653997421e-03,1.688721589744091034e-02,4.856295511126518250e-02,-7.958956062793731689e-02,1.071302294731140137e-01,-2.368538826704025269e-01,9.820683626458048820e-04,-1.283268909901380539e-02,-3.711910545825958252e-02,1.618926972150802612e-02,7.458918262273073196e-03,-1.372104603797197342e-02,1.861472963355481625e-03,1.064319163560867310e-01,-2.079604193568229675e-02,1.350919809192419052e-02,1.581129245460033417e-02,-9.943346492946147919e-03,-8.258108980953693390e-03,-1.450968235731124878e-01,-5.971360951662063599e-02,8.631624514237046242e-04,3.630401194095611572e-02,1.165989041328430176e-02,-6.419769953936338425e-03,-2.673002481460571289e-01,-2.140823565423488617e-02,3.053534775972366333e-03,1.736941933631896973e-02,-8.904323331080377102e-04,-4.005403444170951843e-02,2.839550375938415527e-03,4.693074617534875870e-03,-3.657320747151970863e-03,-3.811258357018232346e-03,-6.552065256983041763e-03,-8.195195696316659451e-04,-1.221820488572120667e-01,4.577360674738883972e-02,-9.120753384195268154e-04,7.666880264878273010e-03,2.606341056525707245e-02,1.398390904068946838e-02,2.975822612643241882e-02,1.970769092440605164e-02,2.426534146070480347e-02,2.606095559895038605e-02,4.831570014357566833e-02,-3.841029852628707886e-02,3.038981929421424866e-02,-8.723521977663040161e-02,1.936281621456146240e-01,4.721949622035026550e-02,-1.643237024545669556e-01,4.614458978176116943e-02,-7.471383363008499146e-02,-4.922692663967609406e-03,3.547792509198188782e-02,1.692832857370376587e-01,2.315200679004192352e-02,4.237401112914085388e-02,3.809376060962677002e-02,-1.355128549039363861e-02,-2.750901579856872559e-01,-2.639447338879108429e-02,-2.169159008190035820e-03,-1.844253391027450562e-02,8.618233352899551392e-02,-2.788276597857475281e-02,-2.070268616080284119e-02,5.716425180435180664e-02,-4.446228966116905212e-03,-2.404749393463134766e-02,4.813146777451038361e-03,-4.262673482298851013e-02,2.029389142990112305e-01,5.097251851111650467e-04,1.509869843721389771e-02,4.447185248136520386e-02,-4.266906064003705978e-03,-1.926189637742936611e-03,-7.286218460649251938e-03,4.189887270331382751e-02,9.923608973622322083e-03,2.000925391912460327e-01,1.274546887725591660e-02,1.503558456897735596e-01,-1.922778785228729248e-03,1.095515023916959763e-02,-1.352108456194400787e-02,4.079608991742134094e-02,1.001831889152526855e-02,-3.246312262490391731e-03,6.152218952775001526e-02,-7.099703070707619190e-04,-1.081168837845325470e-02,-2.697615884244441986e-03,2.120159380137920380e-02,-1.993736810982227325e-02,-1.147575094364583492e-03,-3.378756344318389893e-01,1.812645494937896729e-01,1.088347658514976501e-02,-9.737901389598846436e-03,-6.473032291978597641e-03
-1.437515318393707275e-01,-3.185650706291198730e-02,-1.186216063797473907e-02,-1.261651068925857544e-01,-9.854532033205032349e-02,3.949859738349914551e-01,2.568197250366210938e-02,6.741355359554290771e-02,-2.605598233640193939e-02,1.468072086572647095e-02,3.564246371388435364e-02,-9.606924653053283691e-02,-2.777726203203201294e-02,8.283565193414688110e-02,2.969953715801239014e-01,3.183718398213386536e-02,2.718850970268249512e-01,-1.662675850093364716e-02,2.005632370710372925e-01,1.044478118419647217e-01,1.580494940280914307e-01,5.218430981040000916e-02,-8.361340314149856567e-02,-1.528687961399555206e-02,-1.703482936136424541e-03,4.308756440877914429e-03,-9.257468581199645996e-02,-2.885524183511734009e-03,-1.152771152555942535e-02,1.848924160003662109e-02,4.451939836144447327e-03,7.490134984254837036e-02,-1.262340992689132690e-01,2.437569051980972290e-01,-2.739732153713703156e-02,-1.006072480231523514e-02,8.059090003371238708e-03,-1.950006932020187378e-01,3.019506344571709633e-03,-1.125655602663755417e-02,-1.706646569073200226e-02,3.401054069399833679e-02,1.523458492010831833e-02,-4.915993288159370422e-02,-1.150669530034065247e-01,-1.330738887190818787e-02,2.278550341725349426e-02,6.531891226768493652e-02,-6.827026954852044582e-04,-5.601043812930583954e-03,-1.010126993060112000e-02,-1.995621249079704285e-02,-4.701205715537071228e-02,8.029527962207794189e-02,1.425000466406345367e-02,1.217623129487037659e-01,-7.491511106491088867e-02,4.183356184512376785e-03,1.652132719755172729e-02,7.237313687801361084e-02,-6.859857589006423950e-02,-2.452857792377471924e-02,-2.337724156677722931e-02,-1.050162594765424728e-02,2.636872418224811554e-02,1.889997906982898712e-02,1.997151039540767670e-02,-1.450296895200153813e-05,-3.986598923802375793e-02,-1.357585340738296509e-01,-1.314036101102828979e-01,-4.281137883663177490e-02,2.035102993249893188e-02,1.353969704359769821e-02,5.060281231999397278e-02,1.587899518199265003e-03,-8.985505998134613037e-02,-2.607347257435321808e-02,7.096462883055210114e-03,2.961721969768404961e-03,-1.725386711768805981e-03,1.324133761227130890e-02,-4.402745142579078674e-02,6.653019785881042480e-02,-8.813716471195220947e-02,-8.356052637100219727e-02,-2.600128762423992157e-02,1.271090004593133926e-02,-1.443990319967269897e-02,1.544427499175071716e-02,-5.430222675204277039e-02,7.490118034183979034e-03,-1.918257027864456177e-01,-1.540477853268384933e-02,-1.386883016675710678e-02,1.197083387523889542e-02,1.066517177969217300e-02,-2.555105090141296387e-02,-1.090276837348937988e-01,6.842226535081863403e-02,-5.277093499898910522e-02,3.664375748485326767e-03,1.967476680874824524e-02,-1.791528798639774323e-02,2.153889462351799011e-02,-2.293001487851142883e-02,-4.036331549286842346e-02,4.476772993803024292e-02,-7.671650499105453491e-02,5.389411374926567078e-02,1.136430725455284119e-02,-1.907155662775039673e-02,2.009535022079944611e-02,1.496868114918470383e-02,2.884986437857151031e-02,5.108897015452384949e-02,-3.653901163488626480e-03,-1.755481958389282227e-02,1.656252890825271606e-02,5.777743179351091385e-03,1.311386823654174805e-01,7.934730499982833862e-03,-2.025062963366508484e-02,-2.052348479628562927e-02,-1.201291289180517197e-02,2.726880460977554321e-02,-1.742607355117797852e-02,-4.730531480163335800e-03,-3.018254647031426430e-04,1.829468086361885071e-02,8.599448017776012421e-03,-3.887655213475227356e-03,-6.127886939793825150e-03,-4.157224670052528381e-02,4.767711739987134933e-03,-2.293787337839603424e-02,1.134788617491722107e-02,-8.298107981681823730e-02,-9.584969282150268555e-02,-4.561212286353111267e-02,-6.977096199989318848e-02,-3.186590597033500671e-02,2.997355163097381592e-02,-9.128769859671592712e-03,4.652165994048118591e-02,2.521285787224769592e-02,-1.604683995246887207e-01,3.014186955988407135e-02,1.811327636241912842e-01,-5.125533789396286011e-02,1.585667207837104797e-02,1.003086287528276443e-02,1.578814536333084106e-02,3.435223177075386047e-02,1.223303191363811493e-02,-1.023564711213111877e-01,-9.232815355062484741e-03,3.359695896506309509e-02,-1.511366814374923706e-01,1.194858476519584656e-01,7.788735907524824142e-03,3.253397531807422638e-03,4.390024021267890930e-02,-5.017537623643875122e-03,1.723248139023780823e-02,-3.044218383729457855e-02,2.793570421636104584e-02,-2.026742883026599884e-02,8.721614722162485123e-04,3.895312920212745667e-02,-2.031960934400558472e-01,-1.152967754751443863e-02,-2.287640981376171112e-02,-5.064645782113075256e-02,-1.920356415212154388e-02,-6.158250384032726288e-03,2.034506760537624359e-02,-1.302817463874816895e-01,-1.152595225721597672e-02,-1.156419441103935242e-01,-6.070028990507125854e-03,-1.205217186361551285e-02,4.172293003648519516e-03,-2.162879100069403648e-03,3.419167548418045044e-02,-2.172137498855590820e-01,-1.401845924556255341e-02,-1.178096048533916473e-02,-2.110724523663520813e-02,-2.461266471073031425e-03,1.411517523229122162e-02,7.896945811808109283e-03,-7.530175149440765381e-02,1.778544113039970398e-02,-7.382233161479234695e-03,1.724777519702911377e-01,-1.541786193847656250e-01,-1.234406698495149612e-02,3.659375710412859917e-03,9.258342906832695007e-03
