-1.699932850897312164e-02,1.821573376655578613e-01,-1.450863331556320190e-01,4.465123414993286133e-01,2.240719497203826904e-01,2.124191075563430786e-01,-2.070918977260589600e-01,2.820464074611663818e-01,1.373468488454818726e-01,2.352452129125595093e-01,4.716937243938446045e-02,3.041911497712135315e-02,2.332924753427505493e-01,-2.762173712253570557e-01,-2.084524780511856079e-01,-2.389463633298873901e-01,2.278649210929870605e-01,-3.452150225639343262e-01,-1.625574827194213867e-01,-2.314872667193412781e-02,-4.353802800178527832e-01,1.467829346656799316e-01,-1.800224068574607372e-03,3.802416622638702393e-01,1.720671951770782471e-01,-1.272054463624954224e-01,3.710211217403411865e-01,2.735817432403564453e-01,-2.524322271347045898e-01,6.209739446640014648e-01
2.032380402088165283e-01,2.117493599653244019e-01,-6.884984206408262253e-03,-3.729228079319000244e-01,2.748933434486389160e-01,7.496520131826400757e-02,-1.864404082298278809e-01,1.691027134656906128e-01,-3.043698072433471680e-01,-1.713111996650695801e-01,1.982104480266571045e-01,-4.224744439125061035e-01,5.370598658919334412e-02,-1.124304682016372681e-01,2.055421471595764160e-01,6.786091625690460205e-02,1.354314982891082764e-01,1.506381183862686157e-01,1.474589109420776367e-01,2.024436146020889282e-01,1.965436525642871857e-02,2.434872388839721680e-01,-1.715182960033416748e-01,-1.871300786733627319e-01,-3.759548962116241455e-01,1.678977757692337036e-01,-6.334193795919418335e-02,1.682725176215171814e-02,1.442507803440093994e-01,-6.553204264491796494e-03
