-1.593697667121887207e-01,4.133411869406700134e-02,-1.417635977268218994e-01,-5.072805657982826233e-02,6.923907995223999023e-02,-2.697207927703857422e-01,1.582086272537708282e-02,2.098118141293525696e-02,-1.546147465705871582e-01,-1.194291189312934875e-02,-1.232440024614334106e-01,-3.114758990705013275e-02,-1.540445536375045776e-02,-6.951885670423507690e-02,-3.699860721826553345e-02,-4.972140863537788391e-02,8.792452514171600342e-02,1.488575786352157593e-01,-6.448220461606979370e-02,-7.687328010797500610e-02,-2.111358754336833954e-02,-2.958979308605194092e-01,-2.017010152339935303e-01,-1.096607521176338196e-01,1.047246232628822327e-01,-1.207965239882469177e-01,2.769713997840881348e-01,-4.355707392096519470e-02,-1.806119829416275024e-02,8.344478160142898560e-02,-8.411958068609237671e-02,2.771743200719356537e-02,2.988559007644653320e-01,1.981939822435379028e-01,-7.510659098625183105e-02,3.115470409393310547e-01,1.509915143251419067e-01,8.576712012290954590e-02,9.641188383102416992e-02,-1.869255304336547852e-01,-2.524037845432758331e-02,-2.399544976651668549e-02,-3.721098601818084717e-02,-1.162263154983520508e-01,-6.311325728893280029e-02,-4.320547357201576233e-02,7.421328127384185791e-02,2.649525366723537445e-02,1.547481119632720947e-01,1.975947991013526917e-02,-6.810196489095687866e-02,-7.940525561571121216e-02,1.903464198112487793e-01,-1.206826940178871155e-01,-1.485600471496582031e-01,2.579027414321899414e-01,-1.125985980033874512e-01,1.365452632308006287e-02,3.469385206699371338e-02,-1.012749690562486649e-02,1.296917814761400223e-02,5.630094558000564575e-02,4.315048456192016602e-01,-1.295310109853744507e-01,-1.041795685887336731e-01,-9.593416005373001099e-02,3.425502777099609375e-02,1.835338920354843140e-01,-1.031241863965988159e-01,2.706705220043659210e-02,-1.135597452521324158e-01,3.754336386919021606e-02,3.272460401058197021e-02,-1.171038076281547546e-01,8.963847905397415161e-02,5.206486955285072327e-02,-1.098029688000679016e-01,1.447796970605850220e-01,4.165912512689828873e-03,-3.142938017845153809e-01,-3.805706044659018517e-03,6.086744368076324463e-02,9.630340337753295898e-02,1.268517374992370605e-01,-1.519130766391754150e-01,-1.575041413307189941e-01,-1.880225166678428650e-02,-1.555652767419815063e-01,1.930205896496772766e-02,5.635395646095275879e-02,9.187507629394531250e-02,4.107295721769332886e-02,1.061908677220344543e-01,-3.959581255912780762e-01,-9.697316586971282959e-02,5.216014757752418518e-02,1.330694109201431274e-01,-8.505997061729431152e-02,1.123147830367088318e-01,6.602224707603454590e-02
-6.021471321582794189e-02,1.259957700967788696e-01,-2.127721756696701050e-01,-1.762759536504745483e-01,9.075647592544555664e-02,6.306698080152273178e-03,-1.117224693298339844e-01,-1.164524182677268982e-01,-1.131935417652130127e-01,1.762333661317825317e-01,9.128514677286148071e-02,-7.907102257013320923e-02,2.808849513530731201e-01,1.361700594425201416e-01,1.176786646246910095e-01,1.134112402796745300e-01,-1.161960735917091370e-01,-9.886829555034637451e-02,9.301993250846862793e-02,4.494434967637062073e-02,-8.626676350831985474e-02,3.045684099197387695e-01,8.192302286624908447e-02,-9.355157613754272461e-02,5.467339232563972473e-02,-4.607415199279785156e-02,-1.742896437644958496e-01,1.265186071395874023e-01,-1.256535202264785767e-01,-7.279466837644577026e-02,1.088349744677543640e-01,-8.804026991128921509e-02,9.590457379817962646e-02,-3.058568239212036133e-01,-1.980139315128326416e-02,-2.375387996435165405e-01,-1.108900532126426697e-01,-8.754668384790420532e-02,-1.078075245022773743e-01,-8.291419595479965210e-02,-8.636349439620971680e-02,-8.230201154947280884e-02,1.226784735918045044e-01,3.293668478727340698e-02,1.402139514684677124e-01,-1.090976744890213013e-01,9.508560597896575928e-02,1.040744036436080933e-01,1.612800657749176025e-01,9.507623314857482910e-02,-1.363866329193115234e-01,7.542992383241653442e-02,5.472401902079582214e-02,-2.063447088003158569e-01,-8.231827057898044586e-03,-1.681660413742065430e-01,9.765852242708206177e-02,-9.260459989309310913e-02,1.168184205889701843e-01,1.019169613718986511e-01,-1.084664240479469299e-01,-9.077329933643341064e-02,1.246193647384643555e-01,-1.460014842450618744e-02,2.454980462789535522e-01,1.806527078151702881e-01,5.906059965491294861e-02,-5.419817194342613220e-02,1.872541308403015137e-01,1.316832453012466431e-01,-6.400296092033386230e-02,-1.096018850803375244e-01,-1.262053400278091431e-01,-3.853796049952507019e-02,5.678416416049003601e-02,-8.114921301603317261e-02,-6.931129842996597290e-02,1.153498664498329163e-01,-1.265491843223571777e-01,-6.175195425748825073e-02,-6.514541804790496826e-02,-1.315268725156784058e-01,-1.178649291396141052e-01,-1.532396674156188965e-02,-7.111062854528427124e-02,-5.601678043603897095e-02,7.163743674755096436e-02,1.355826556682586670e-01,6.148527935147285461e-02,-6.642318516969680786e-02,1.037302613258361816e-01,1.205266341567039490e-01,-9.108752012252807617e-02,-4.778001084923744202e-02,8.724279701709747314e-02,-1.020407006144523621e-01,-8.678899705410003662e-02,-6.591269373893737793e-02,5.929881334304809570e-02,-1.075412929058074951e-01
